digraph Tree {
node [shape=box, style="filled, rounded", color="black", fontname="helvetica"] ;
edge [fontname="helvetica"] ;
0 [label="petal width (cm) <= 1.65\ngini = 0.66\nsamples = 97\nvalue = [39, 56, 55]\nclass = versicolor", fillcolor="#fdfffe"] ;
1 [label="petal length (cm) <= 2.6\ngini = 0.53\nsamples = 64\nvalue = [39, 56, 5]\nclass = versicolor", fillcolor="#c8f8dc"] ;
0 -> 1 [labeldistance=2.5, labelangle=45, headlabel="True"] ;
2 [label="gini = 0.0\nsamples = 29\nvalue = [39, 0, 0]\nclass = setosa", fillcolor="#e58139"] ;
1 -> 2 ;
3 [label="petal length (cm) <= 4.95\ngini = 0.15\nsamples = 35\nvalue = [0, 56, 5]\nclass = versicolor", fillcolor="#4be78c"] ;
1 -> 3 ;
4 [label="gini = 0.0\nsamples = 33\nvalue = [0, 56, 0]\nclass = versicolor", fillcolor="#39e581"] ;
3 -> 4 ;
5 [label="gini = 0.0\nsamples = 2\nvalue = [0, 0, 5]\nclass = virginica", fillcolor="#8139e5"] ;
3 -> 5 ;
6 [label="gini = 0.0\nsamples = 33\nvalue = [0, 0, 50]\nclass = virginica", fillcolor="#8139e5"] ;
0 -> 6 [labeldistance=2.5, labelangle=-45, headlabel="False"] ;
}